<?xml version="1.0"?>
<opencv_storage>
<stage28>
  <maxWeakCount>4</maxWeakCount>
  <stageThreshold>-1.7702506482601166e-01</stageThreshold>
  <weakClassifiers>
    <_>
      <internalNodes>
        0 -1 8520 -1068575616 -2075065339 1208092672 -50266084 33653189
        -1970130936 604045336 33587338</internalNodes>
      <leafValues>
        -7.5182479619979858e-01 5.5922865867614746e-01</leafValues></_>
    <_>
      <internalNodes>
        0 -1 12132 -737512920 -1702858748 299009 269651976 -1987706080
        1211142144 272895299 -2138635709</internalNodes>
      <leafValues>
        -6.8841820955276489e-01 5.5552369356155396e-01</leafValues></_>
    <_>
      <internalNodes>
        0 -1 21099 -1879031609 -787479416 -1879048191 545325120
        -1459580896 -1727987710 -2139051885 -1803515766</internalNodes>
      <leafValues>
        -6.7791038751602173e-01 6.2244838476181030e-01</leafValues></_>
    <_>
      <internalNodes>
        0 -1 33338 1877957478 784137830 2075095022 -1225392130 394161891
        1744107447 939503032 -331907632</internalNodes>
      <leafValues>
        -6.0317236185073853e-01 7.2834366559982300e-01</leafValues></_></weakClassifiers></stage28>
</opencv_storage>
