<?xml version="1.0"?>
<opencv_storage>
<stage2>
  <maxWeakCount>7</maxWeakCount>
  <stageThreshold>-9.2925101518630981e-01</stageThreshold>
  <weakClassifiers>
    <_>
      <internalNodes>
        0 -1 515876 1.6117306426167488e-02</internalNodes>
      <leafValues>
        -5.7738095521926880e-01 7.3484849929809570e-01</leafValues></_>
    <_>
      <internalNodes>
        0 -1 280207 1.1542812734842300e-01</internalNodes>
      <leafValues>
        -2.5525307655334473e-01 9.0384465456008911e-01</leafValues></_>
    <_>
      <internalNodes>
        0 -1 96258 -2.7107956702820957e-04</internalNodes>
      <leafValues>
        -9.1781258583068848e-01 2.8457218408584595e-01</leafValues></_>
    <_>
      <internalNodes>
        0 -1 494088 -1.3642142526805401e-02</internalNodes>
      <leafValues>
        9.1102719306945801e-01 -2.8030639886856079e-01</leafValues></_>
    <_>
      <internalNodes>
        0 -1 367727 3.9752561599016190e-02</internalNodes>
      <leafValues>
        -2.5298514962196350e-01 7.7293157577514648e-01</leafValues></_>
    <_>
      <internalNodes>
        0 -1 398176 3.4926660358905792e-02</internalNodes>
      <leafValues>
        -2.6796633005142212e-01 9.2028480768203735e-01</leafValues></_>
    <_>
      <internalNodes>
        0 -1 547770 -1.2991920812055469e-04</internalNodes>
      <leafValues>
        -7.2512948513031006e-01 4.2006868124008179e-01</leafValues></_></weakClassifiers></stage2>
</opencv_storage>
