<?xml version="1.0"?>
<opencv_storage>
<stage3>
  <maxWeakCount>7</maxWeakCount>
  <stageThreshold>-9.5048582553863525e-01</stageThreshold>
  <weakClassifiers>
    <_>
      <internalNodes>
        0 -1 349318 6.0650967061519623e-02</internalNodes>
      <leafValues>
        -6.0273975133895874e-01 5.7142859697341919e-01</leafValues></_>
    <_>
      <internalNodes>
        0 -1 547770 3.4645217237994075e-04</internalNodes>
      <leafValues>
        2.7280971407890320e-01 -7.4712425470352173e-01</leafValues></_>
    <_>
      <internalNodes>
        0 -1 521724 8.0020893365144730e-03</internalNodes>
      <leafValues>
        -3.2853105664253235e-01 6.3099628686904907e-01</leafValues></_>
    <_>
      <internalNodes>
        0 -1 179587 3.4994611050933599e-03</internalNodes>
      <leafValues>
        -2.7767208218574524e-01 6.3383156061172485e-01</leafValues></_>
    <_>
      <internalNodes>
        0 -1 349047 -6.5586534328758717e-03</internalNodes>
      <leafValues>
        5.6863498687744141e-01 -3.6396408081054688e-01</leafValues></_>
    <_>
      <internalNodes>
        0 -1 515635 -1.0628474410623312e-03</internalNodes>
      <leafValues>
        -8.9387804269790649e-01 2.0491765439510345e-01</leafValues></_>
    <_>
      <internalNodes>
        0 -1 685461 2.6234734104946256e-04</internalNodes>
      <leafValues>
        2.1720589697360992e-01 -7.8790533542633057e-01</leafValues></_></weakClassifiers></stage3>
</opencv_storage>
