<?xml version="1.0"?>
<opencv_storage>
<cascade>
  <stageType>BOOST</stageType>
  <featureType>LBP</featureType>
  <height>20</height>
  <width>60</width>
  <stageParams>
    <boostType>GAB</boostType>
    <minHitRate>9.9500000476837158e-01</minHitRate>
    <maxFalseAlarm>5.0000000000000000e-01</maxFalseAlarm>
    <weightTrimRate>9.4999999999999996e-01</weightTrimRate>
    <maxDepth>1</maxDepth>
    <maxWeakCount>100</maxWeakCount></stageParams>
  <featureParams>
    <maxCatCount>256</maxCatCount>
    <featSize>1</featSize></featureParams>
  <stageNum>39</stageNum>
  <stages>
    <!-- stage 0 -->
    <_>
      <maxWeakCount>2</maxWeakCount>
      <stageThreshold>1.3622627593576908e-02</stageThreshold>
      <weakClassifiers>
        <_>
          <internalNodes>
            0 -1 24 -397694 -524770 -133955654 2138963903 -16843032
            -67108874 536737882 532643711</internalNodes>
          <leafValues>
            -9.1089111566543579e-01 9.5302015542984009e-01</leafValues></_>
        <_>
          <internalNodes>
            0 -1 39 1360510976 1090584587 65 1090978048 128 1073872905
            50331659 487580175</internalNodes>
          <leafValues>
            -8.5793483257293701e-01 9.2451369762420654e-01</leafValues></_></weakClassifiers></_>
    <!-- stage 1 -->
    <_>
      <maxWeakCount>2</maxWeakCount>
      <stageThreshold>-1.7387576401233673e-01</stageThreshold>
      <weakClassifiers>
        <_>
          <internalNodes>
            0 -1 52 -742288888 -787415040 16 -1856389110 42025666
            -937295864 151601411 460309163</internalNodes>
          <leafValues>
            -8.9743590354919434e-01 6.9767439365386963e-01</leafValues></_>
        <_>
          <internalNodes>
            0 -1 89 -1960291083 50905088 16843287 -1121939292 134251277
            -2030026752 -1073723256 -1126153839</internalNodes>
          <leafValues>
            -7.9686897993087769e-01 7.2356015443801880e-01</leafValues></_></weakClassifiers></_>
    <!-- stage 2 -->
    <_>
      <maxWeakCount>3</maxWeakCount>
      <stageThreshold>-6.8420779705047607e-01</stageThreshold>
      <weakClassifiers>
        <_>
          <internalNodes>
            0 -1 34 -51648634 -1441810 -1089 2034630510 -4338290
            -806354961 -1196371 -139770145</internalNodes>
          <leafValues>
            -6.8205130100250244e-01 7.6393443346023560e-01</leafValues></_>
        <_>
          <internalNodes>
            0 -1 119 219304177 -753926134 -536739241 -777879424
            -1073215444 -2105409533 -939392856 -90697559</internalNodes>
          <leafValues>
            -7.0637935400009155e-01 7.4807828664779663e-01</leafValues></_>
        <_>
          <internalNodes>
            0 -1 107 -1992096433 18972673 269701124 -503052031 839553097
            336364682 -2113894336 -186597344</internalNodes>
          <leafValues>
            -7.4176281690597534e-01 7.7257442474365234e-01</leafValues></_></weakClassifiers></_>
    <!-- stage 3 -->
    <_>
      <maxWeakCount>2</maxWeakCount>
      <stageThreshold>-9.9405117332935333e-02</stageThreshold>
      <weakClassifiers>
        <_>
          <internalNodes>
            0 -1 77 -767375340 -1844968959 4325657 -754871272
            -2146254840 -2113666942 -394098444 864866531</internalNodes>
          <leafValues>
            -8.1707316637039185e-01 6.9642859697341919e-01</leafValues></_>
        <_>
          <internalNodes>
            0 -1 65 -267169449 -1726865400 16859158 -1320943184
            -2147473392 1208354852 -1874542550 -1207428991</internalNodes>
          <leafValues>
            -7.5983327627182007e-01 7.1766805648803711e-01</leafValues></_></weakClassifiers></_>
    <!-- stage 4 -->
    <_>
      <maxWeakCount>2</maxWeakCount>
      <stageThreshold>-1.2556770443916321e-01</stageThreshold>
      <weakClassifiers>
        <_>
          <internalNodes>
            0 -1 51 -1073180230 1510117377 -1610608623 -1191165952
            1350566042 -1954397311 1082853523 671803921</internalNodes>
          <leafValues>
            -8.5093170404434204e-01 6.9911503791809082e-01</leafValues></_>
        <_>
          <internalNodes>
            0 -1 102 303169557 -83688959 1086324739 -1862139901
            -1960705917 -1434271735 98543 -363195928</internalNodes>
          <leafValues>
            -7.6673245429992676e-01 7.2536396980285645e-01</leafValues></_></weakClassifiers></_>
    <!-- stage 5 -->
    <_>
      <maxWeakCount>2</maxWeakCount>
      <stageThreshold>-5.0661299377679825e-02</stageThreshold>
      <weakClassifiers>
        <_>
          <internalNodes>
            0 -1 38 -939437682 1641488389 1074794509 -1861713850
            10518568 -2012217344 -2127986023 96725035</internalNodes>
          <leafValues>
            -8.2278478145599365e-01 6.7251461744308472e-01</leafValues></_>
        <_>
          <internalNodes>
            0 -1 70 8503877 1417756691 -486440877 -972861229 1359915
            -234815480 67209419 -1933410105</internalNodes>
          <leafValues>
            -7.0771294832229614e-01 7.7212351560592651e-01</leafValues></_></weakClassifiers></_>
    <!-- stage 6 -->
    <_>
      <maxWeakCount>2</maxWeakCount>
      <stageThreshold>-1.1363509297370911e-01</stageThreshold>
      <weakClassifiers>
        <_>
          <internalNodes>
            0 -1 25 -1870276730 -787480445 33641478 1484857604
            1891939308 -2013196031 1082656968 1636671520</internalNodes>
          <leafValues>
            -8.7999999523162842e-01 6.6285711526870728e-01</leafValues></_>
        <_>
          <internalNodes>
            0 -1 106 1092052423 -1878945792 1082130434 1345980800
            -402391039 -2147483648 -2147483636 -862404608</internalNodes>
          <leafValues>
            -6.9848483800888062e-01 7.6636493206024170e-01</leafValues></_></weakClassifiers></_>
    <!-- stage 7 -->
    <_>
      <maxWeakCount>2</maxWeakCount>
      <stageThreshold>3.5110540688037872e-02</stageThreshold>
      <weakClassifiers>
        <_>
          <internalNodes>
            0 -1 66 -125609 -1078149142 234420859 286531088 1610317820
            -9502857 -66306 -1672282567</internalNodes>
          <leafValues>
            -5.7333332300186157e-01 8.3272725343704224e-01</leafValues></_>
        <_>
          <internalNodes>
            0 -1 87 70551 -213893117 -1476386543 1358954829 167788939
            -775749120 1216876760 520749097</internalNodes>
          <leafValues>
            -7.9761672019958496e-01 6.9263041019439697e-01</leafValues></_></weakClassifiers></_>
    <!-- stage 8 -->
    <_>
      <maxWeakCount>2</maxWeakCount>
      <stageThreshold>1.1765902489423752e-01</stageThreshold>
      <weakClassifiers>
        <_>
          <internalNodes>
            0 -1 96 -185016876 -3 -125 -2 -979 -1 -32770 -1090716161</internalNodes>
          <leafValues>
            -6.3546800613403320e-01 7.7104377746582031e-01</leafValues></_>
        <_>
          <internalNodes>
            0 -1 75 2147270321 1069416444 -1376062288 1036254840
            -17917879 -570490883 -671091598 -1713627407</internalNodes>
          <leafValues>
            -6.5250915288925171e-01 7.5312697887420654e-01</leafValues></_></weakClassifiers></_>
    <!-- stage 9 -->
    <_>
      <maxWeakCount>3</maxWeakCount>
      <stageThreshold>4.5227751135826111e-01</stageThreshold>
      <weakClassifiers>
        <_>
          <internalNodes>
            0 -1 64 -960004094 -1066205183 -2147483629 -1996357624
            -801111349 -1996488704 -1742471040 -796557308</internalNodes>
          <leafValues>
            -8.1012660264968872e-01 6.6666668653488159e-01</leafValues></_>
        <_>
          <internalNodes>
            0 -1 88 1095123421 75501568 -1845469097 2392192 -2146944951
            675285249 -1979522940 -870791024</internalNodes>
          <leafValues>
            -8.1986171007156372e-01 6.1476093530654907e-01</leafValues></_>
        <_>
          <internalNodes>
            0 -1 93 -1186471459 286294082 268697608 285278214 1078034572
            150997504 1079019720 1540440465</internalNodes>
          <leafValues>
            -8.2915008068084717e-01 6.5502828359603882e-01</leafValues></_></weakClassifiers></_>
    <!-- stage 10 -->
    <_>
      <maxWeakCount>4</maxWeakCount>
      <stageThreshold>-2.3647916316986084e-01</stageThreshold>
      <weakClassifiers>
        <_>
          <internalNodes>
            0 -1 97 33555457 -787365627 -1073725439 -805208063
            -1065222006 -1610055678 -2113863454 -1465106296</internalNodes>
          <leafValues>
            -7.9411762952804565e-01 5.7142859697341919e-01</leafValues></_>
        <_>
          <internalNodes>
            0 -1 36 1485029454 -246018047 1208033440 -2130468096
            1351385217 411304448 -1073348216 80833154</internalNodes>
          <leafValues>
            -7.4170702695846558e-01 5.8410918712615967e-01</leafValues></_>
        <_>
          <internalNodes>
            0 -1 90 -1802104335 304613834 164618 1434189932 -1071644542
            -1006632958 8552641 -526587648</internalNodes>
          <leafValues>
            -7.1769666671752930e-01 6.1839145421981812e-01</leafValues></_>
        <_>
          <internalNodes>
            0 -1 122 -535293559 85000708 -1073741420 -1810808816
            1090723844 1229492224 -1593826899 -222150512</internalNodes>
          <leafValues>
            -6.4486217498779297e-01 7.7366292476654053e-01</leafValues></_></weakClassifiers></_>
    <!-- stage 11 -->
    <_>
      <maxWeakCount>4</maxWeakCount>
      <stageThreshold>5.5070746690034866e-02</stageThreshold>
      <weakClassifiers>
        <_>
          <internalNodes>
            0 -1 81 1049681 1368391708 1090552257 17956884 805867682
            -1006597999 50337978 61474820</internalNodes>
          <leafValues>
            -7.6158940792083740e-01 6.1604583263397217e-01</leafValues></_>
        <_>
          <internalNodes>
            0 -1 37 33557569 -1543435136 1375732104 -233766656
            -2139068279 1082130440 -1610605432 -1079997863</internalNodes>
          <leafValues>
            -6.3772219419479370e-01 7.4282705783843994e-01</leafValues></_>
        <_>
          <internalNodes>
            0 -1 79 -1306110359 -16810249 -1073745921 -57873 -1091289089
            -1073807361 -1342218401 -1694673415</internalNodes>
          <leafValues>
            -6.1258500814437866e-01 7.9673391580581665e-01</leafValues></_>
        <_>
          <internalNodes>
            0 -1 54 -922659683 -2121099248 -2147465925 1348010224 32896
            1485570178 134758587 1796096139</internalNodes>
          <leafValues>
            -6.9121718406677246e-01 7.6148319244384766e-01</leafValues></_></weakClassifiers></_>
    <!-- stage 12 -->
    <_>
      <maxWeakCount>2</maxWeakCount>
      <stageThreshold>-1.8924188613891602e-01</stageThreshold>
      <weakClassifiers>
        <_>
          <internalNodes>
            0 -1 44 -784075310 -587193854 1073762576 -2147481086
            17137800 -1048510429 -1069481720 1493237762</internalNodes>
          <leafValues>
            -7.5757575035095215e-01 6.7164176702499390e-01</leafValues></_>
        <_>
          <internalNodes>
            0 -1 14 1440208134 -184483562 1081347 -788529152 79823235
            134873088 -2147481214 420513890</internalNodes>
          <leafValues>
            -7.9960870742797852e-01 5.6833386421203613e-01</leafValues></_></weakClassifiers></_>
    <!-- stage 13 -->
    <_>
      <maxWeakCount>4</maxWeakCount>
      <stageThreshold>2.0324002206325531e-01</stageThreshold>
      <weakClassifiers>
        <_>
          <internalNodes>
            0 -1 94 -1074069505 1878849668 69073824 922816788
            -1443422980 -671096833 1576810698 -1084465475</internalNodes>
          <leafValues>
            -4.8017621040344238e-01 7.6556777954101562e-01</leafValues></_>
        <_>
          <internalNodes>
            0 -1 118 -243069791 830947480 67306498 -721186740
            -2113761133 -1073741822 -931132209 436208259</internalNodes>
          <leafValues>
            -6.4744997024536133e-01 6.8861001729965210e-01</leafValues></_>
        <_>
          <internalNodes>
            0 -1 128 234626537 -1946173441 -2098189 -163807263
            -704775562 -1879081089 1744815988 -17543555</internalNodes>
          <leafValues>
            -6.1638975143432617e-01 7.3256897926330566e-01</leafValues></_>
        <_>
          <internalNodes>
            0 -1 56 285260164 1897201800 -738164579 -1861746679
            671613065 1082228737 -1879007093 -343146485</internalNodes>
          <leafValues>
            -6.3454806804656982e-01 7.4433851242065430e-01</leafValues></_></weakClassifiers></_>
    <!-- stage 14 -->
    <_>
      <maxWeakCount>3</maxWeakCount>
      <stageThreshold>-6.7559796571731567e-01</stageThreshold>
      <weakClassifiers>
        <_>
          <internalNodes>
            0 -1 47 -16781314 -1099121027 -114950 -1075410605 -838893572
            1710096383 -25170692 -1084096590</internalNodes>
          <leafValues>
            -5.7272726297378540e-01 8.0714285373687744e-01</leafValues></_>
        <_>
          <internalNodes>
            0 -1 0 -1871454250 -41926244 -1740570440 -268402623
            1073775645 4358144 -1065320440 1564999744</internalNodes>
          <leafValues>
            -6.9258451461791992e-01 7.1951133012771606e-01</leafValues></_>
        <_>
          <internalNodes>
            0 -1 1 1461247318 -251653747 -1056964214 -1862155775
            -1065320128 1073741952 168329226 1939177539</internalNodes>
          <leafValues>
            -7.9015630483627319e-01 6.8426156044006348e-01</leafValues></_></weakClassifiers></_>
    <!-- stage 15 -->
    <_>
      <maxWeakCount>4</maxWeakCount>
      <stageThreshold>-2.3278035223484039e-02</stageThreshold>
      <weakClassifiers>
        <_>
          <internalNodes>
            0 -1 20 -1563230233 -67377153 -285212730 -39198459
            -1862795345 -1073750029 -1619329026 876969968</internalNodes>
          <leafValues>
            -5.5778896808624268e-01 7.0099669694900513e-01</leafValues></_>
        <_>
          <internalNodes>
            0 -1 50 269635669 427884561 17334296 294191233 -2113924768
            -1878491124 671088833 470368394</internalNodes>
          <leafValues>
            -7.0854383707046509e-01 6.0741138458251953e-01</leafValues></_>
        <_>
          <internalNodes>
            0 -1 63 -1071617998 1611727105 1074008147 1280344081 8386
            -1308620800 -2147481566 -603338231</internalNodes>
          <leafValues>
            -6.4624458551406860e-01 6.7061936855316162e-01</leafValues></_>
        <_>
          <internalNodes>
            0 -1 29 -1878862861 -1325399911 69904 287375427 -1609912006
            286267400 268535947 705775621</internalNodes>
          <leafValues>
            -6.8544149398803711e-01 7.0374125242233276e-01</leafValues></_></weakClassifiers></_>
    <!-- stage 16 -->
    <_>
      <maxWeakCount>4</maxWeakCount>
      <stageThreshold>4.8594497144222260e-02</stageThreshold>
      <weakClassifiers>
        <_>
          <internalNodes>
            0 -1 35 -1327086368 532763163 -1074270641 1560473343
            -1359028993 -285214977 1996445439 -1564478219</internalNodes>
          <leafValues>
            -4.6846845746040344e-01 7.3381292819976807e-01</leafValues></_>
        <_>
          <internalNodes>
            0 -1 67 1103135477 -670465464 9 -578350792 1052808
            -1996357631 167772299 -1095498919</internalNodes>
          <leafValues>
            -5.9079420566558838e-01 7.0374882221221924e-01</leafValues></_>
        <_>
          <internalNodes>
            0 -1 124 -1466354206 -1451228132 16388 -1055895547
            1610895785 -517881854 -2138897784 199839901</internalNodes>
          <leafValues>
            -7.3568302392959595e-01 5.9939777851104736e-01</leafValues></_>
        <_>
          <internalNodes>
            0 -1 78 -1368521642 -107163 -1090519129 473874414 -671219988
            -18907169 -151128579 -1346462211</internalNodes>
          <leafValues>
            -6.5328425168991089e-01 7.2830903530120850e-01</leafValues></_></weakClassifiers></_>
    <!-- stage 17 -->
    <_>
      <maxWeakCount>4</maxWeakCount>
      <stageThreshold>-2.2217647731304169e-01</stageThreshold>
      <weakClassifiers>
        <_>
          <internalNodes>
            0 -1 83 -450486232 -1862139904 411172864 1610743812
            -2146959351 -2142822400 -1606269888 -1903218095</internalNodes>
          <leafValues>
            -6.8354427814483643e-01 6.0818713903427124e-01</leafValues></_>
        <_>
          <internalNodes>
            0 -1 17 269583564 1346375825 1135361 8454176 713237151
            -1199472355 142606921 713230440</internalNodes>
          <leafValues>
            -7.1281033754348755e-01 5.8852183818817139e-01</leafValues></_>
        <_>
          <internalNodes>
            0 -1 127 289431696 -805175296 16777296 -1048116684
            -1870626653 -2113929216 -2146926456 -1482028920</internalNodes>
          <leafValues>
            -6.4445370435714722e-01 6.8399739265441895e-01</leafValues></_>
        <_>
          <internalNodes>
            0 -1 31 1342193858 271728721 69634 1012072457 131 403603456
            1476397074 596183051</internalNodes>
          <leafValues>
            -7.7443170547485352e-01 6.0990917682647705e-01</leafValues></_></weakClassifiers></_>
    <!-- stage 18 -->
    <_>
      <maxWeakCount>4</maxWeakCount>
      <stageThreshold>-1.4650824666023254e-01</stageThreshold>
      <weakClassifiers>
        <_>
          <internalNodes>
            0 -1 42 -1078990982 -406982721 -1346457480 2147442557
            -1082269700 1572863997 1300045007 -285868165</internalNodes>
          <leafValues>
            -5.0753766298294067e-01 6.6777408123016357e-01</leafValues></_>
        <_>
          <internalNodes>
            0 -1 32 1518424451 269090906 294913 128516110 1074397318
            704782533 9486361 468336779</internalNodes>
          <leafValues>
            -6.2949895858764648e-01 6.2526911497116089e-01</leafValues></_>
        <_>
          <internalNodes>
            0 -1 86 33603640 -1996488704 8585232 1074806784 -1467745912
            1082130569 705400843 1182977349</internalNodes>
          <leafValues>
            -7.5540971755981445e-01 5.5220568180084229e-01</leafValues></_>
        <_>
          <internalNodes>
            0 -1 105 -1023323954 272646144 -268434428 36935 -2147450494
            176177152 268613731 486707939</internalNodes>
          <leafValues>
            -6.8414175510406494e-01 6.6692751646041870e-01</leafValues></_></weakClassifiers></_>
    <!-- stage 19 -->
    <_>
      <maxWeakCount>4</maxWeakCount>
      <stageThreshold>9.5689862966537476e-02</stageThreshold>
      <weakClassifiers>
        <_>
          <internalNodes>
            0 -1 2 -1561878554 -269486431 -1929445379 -2142505470
            1436254165 1207959423 1778384879 1332216423</internalNodes>
          <leafValues>
            -5.3768843412399292e-01 6.8770766258239746e-01</leafValues></_>
        <_>
          <internalNodes>
            0 -1 85 -1790881596 -268353524 285217121 -935243768
            -1744814006 -2013265784 39598 -1048543096</internalNodes>
          <leafValues>
            -5.6109935045242310e-01 7.1025812625885010e-01</leafValues></_>
        <_>
          <internalNodes>
            0 -1 5 152076414 1904246918 -2130435880 881475669 33718801
            142802945 -1048387002 -964015159</internalNodes>
          <leafValues>
            -6.8515789508819580e-01 6.4363151788711548e-01</leafValues></_>
        <_>
          <internalNodes>
            0 -1 123 1743740715 199688190 -70984 -411045953 -402655313
            -134938631 2122317621 585957277</internalNodes>
          <leafValues>
            -6.1711800098419189e-01 6.9399380683898926e-01</leafValues></_></weakClassifiers></_>
    <!-- stage 20 -->
    <_>
      <maxWeakCount>4</maxWeakCount>
      <stageThreshold>9.8388336598873138e-02</stageThreshold>
      <weakClassifiers>
        <_>
          <internalNodes>
            0 -1 84 -1130079199 -823181579 -18281233 381673470
            -1342701846 -130 -51513889 456376700</internalNodes>
          <leafValues>
            -4.9743589758872986e-01 6.4590162038803101e-01</leafValues></_>
        <_>
          <internalNodes>
            0 -1 13 -1473987162 -285736979 -536871169 -1174929561
            903217137 1065320183 -311067267 -172697625</internalNodes>
          <leafValues>
            -5.2387839555740356e-01 6.8212842941284180e-01</leafValues></_>
        <_>
          <internalNodes>
            0 -1 100 1162059975 1358954563 1 -1926135805 -2147479051 136
            1073742370 -1844084315</internalNodes>
          <leafValues>
            -5.9314674139022827e-01 6.5864241123199463e-01</leafValues></_>
        <_>
          <internalNodes>
            0 -1 57 1224990952 890376210 4227088 -720371579 570460225
            -2012938110 32929 -1951774580</internalNodes>
          <leafValues>
            -6.3649499416351318e-01 6.3001334667205811e-01</leafValues></_></weakClassifiers></_>
    <!-- stage 21 -->
    <_>
      <maxWeakCount>4</maxWeakCount>
      <stageThreshold>5.6347746402025223e-02</stageThreshold>
      <weakClassifiers>
        <_>
          <internalNodes>
            0 -1 30 537231448 -1878391424 135282944 1075085321 671107292
            -1987575792 -1877953526 171066497</internalNodes>
          <leafValues>
            -7.0422536134719849e-01 5.5865919589996338e-01</leafValues></_>
        <_>
          <internalNodes>
            0 -1 71 406931619 -788447216 268435457 25231509 -1585360246
            -1568669680 134316547 1589715715</internalNodes>
          <leafValues>
            -6.2501686811447144e-01 6.2597042322158813e-01</leafValues></_>
        <_>
          <internalNodes>
            0 -1 103 -96971151 -1079804941 -1086341185 -71303299
            -1233668098 -92602369 1602190802 -1084084263</internalNodes>
          <leafValues>
            -5.6805741786956787e-01 7.7510458230972290e-01</leafValues></_>
        <_>
          <internalNodes>
            0 -1 18 -537919957 1980006350 -33660946 -8831105 -554242050
            895811581 -25403912 2069550975</internalNodes>
          <leafValues>
            -5.6022447347640991e-01 7.1873188018798828e-01</leafValues></_></weakClassifiers></_>
    <!-- stage 22 -->
    <_>
      <maxWeakCount>4</maxWeakCount>
      <stageThreshold>2.2641608491539955e-02</stageThreshold>
      <weakClassifiers>
        <_>
          <internalNodes>
            0 -1 92 1607233640 521174983 1056184931 -303169545
            2002021746 2113896447 1875734527 629039095</internalNodes>
          <leafValues>
            -5.5434781312942505e-01 6.3924050331115723e-01</leafValues></_>
        <_>
          <internalNodes>
            0 -1 113 -2145107759 -1777860607 1208059136 119013569
            -1342144336 -1182267262 1090523658 337772579</internalNodes>
          <leafValues>
            -7.5600957870483398e-01 5.4985928535461426e-01</leafValues></_>
        <_>
          <internalNodes>
            0 -1 55 -268501093 -131143 2142418393 -939524271 -34120019
            1978662907 -168511542 771719110</internalNodes>
          <leafValues>
            -5.1900339126586914e-01 8.0896651744842529e-01</leafValues></_>
        <_>
          <internalNodes>
            0 -1 82 -1333772071 -788463608 285823257 1502150672
            -1325367006 -1191182208 -2013224053 755105793</internalNodes>
          <leafValues>
            -6.4745479822158813e-01 6.6663211584091187e-01</leafValues></_></weakClassifiers></_>
    <!-- stage 23 -->
    <_>
      <maxWeakCount>2</maxWeakCount>
      <stageThreshold>3.2729275524616241e-02</stageThreshold>
      <weakClassifiers>
        <_>
          <internalNodes>
            0 -1 76 578233351 -1605926841 -17750687 -1593818917
            2146399185 -65 -285266097 -420114817</internalNodes>
          <leafValues>
            -5.3846156597137451e-01 6.7213112115859985e-01</leafValues></_>
        <_>
          <internalNodes>
            0 -1 4 -1040117690 -1475558306 -1071281984 -1072594939
            1145503890 940064784 -2113924589 -1509848671</internalNodes>
          <leafValues>
            -6.3940185308456421e-01 6.4011508226394653e-01</leafValues></_></weakClassifiers></_>
    <!-- stage 24 -->
    <_>
      <maxWeakCount>4</maxWeakCount>
      <stageThreshold>4.9638256430625916e-02</stageThreshold>
      <weakClassifiers>
        <_>
          <internalNodes>
            0 -1 80 1052276726 -1347780796 2147483515 -922681280
            1073541116 -268500994 2139062269 -1752168132</internalNodes>
          <leafValues>
            -5.3926700353622437e-01 6.5695792436599731e-01</leafValues></_>
        <_>
          <internalNodes>
            0 -1 53 1744829968 -957875201 -33587883 -1744830660
            -1342226582 1708523445 1608506882 1232855027</internalNodes>
          <leafValues>
            -5.9781122207641602e-01 6.5256160497665405e-01</leafValues></_>
        <_>
          <internalNodes>
            0 -1 91 -2054143805 -1828714366 -2129657599 786432
            -234848127 -2147483520 -1585280501 -1132216158</internalNodes>
          <leafValues>
            -5.8987474441528320e-01 7.4739193916320801e-01</leafValues></_>
        <_>
          <internalNodes>
            0 -1 33 131389380 -1069211584 1073741840 -805306304
            1078038528 -251461624 1620017168 -963182072</internalNodes>
          <leafValues>
            -6.7000657320022583e-01 6.2774574756622314e-01</leafValues></_></weakClassifiers></_>
    <!-- stage 25 -->
    <_>
      <maxWeakCount>3</maxWeakCount>
      <stageThreshold>-5.6340861320495605e-01</stageThreshold>
      <weakClassifiers>
        <_>
          <internalNodes>
            0 -1 114 16931628 268445696 1208681216 1361576265
            -2106768912 570425529 -2013241336 963124312</internalNodes>
          <leafValues>
            -8.6440676450729370e-01 5.2879583835601807e-01</leafValues></_>
        <_>
          <internalNodes>
            0 -1 98 -1718532669 -746504050 1413779652 226640177
            -1328543575 -939524096 168010016 -1786068981</internalNodes>
          <leafValues>
            -5.4351907968521118e-01 7.7148115634918213e-01</leafValues></_>
        <_>
          <internalNodes>
            0 -1 110 -1152817949 1061121323 -33013 1870649319 2121620973
            2139094519 -1077993601 -89165995</internalNodes>
          <leafValues>
            -5.4868537187576294e-01 7.4234443902969360e-01</leafValues></_></weakClassifiers></_>
    <!-- stage 26 -->
    <_>
      <maxWeakCount>4</maxWeakCount>
      <stageThreshold>-1.3263385044410825e-03</stageThreshold>
      <weakClassifiers>
        <_>
          <internalNodes>
            0 -1 21 -1230252338 -672280593 -67108930 1573555947
            -136321211 -537919489 -16812222 -1286610987</internalNodes>
          <leafValues>
            -5.6149733066558838e-01 6.5495204925537109e-01</leafValues></_>
        <_>
          <internalNodes>
            0 -1 48 1023274997 519808672 1073641437 2138421209 -35
            -269033603 -10584582 -1263888403</internalNodes>
          <leafValues>
            -5.1994752883911133e-01 7.5890868902206421e-01</leafValues></_>
        <_>
          <internalNodes>
            0 -1 115 -1744251908 -1820295168 36884 1797062745 161932
            8388738 -1475856253 -1327296103</internalNodes>
          <leafValues>
            -5.9878194332122803e-01 6.9024914503097534e-01</leafValues></_>
        <_>
          <internalNodes>
            0 -1 46 889430906 -737853294 -2130706166 813834823 134551951
            197132420 302055944 1992476683</internalNodes>
          <leafValues>
            -8.1640517711639404e-01 5.3835433721542358e-01</leafValues></_></weakClassifiers></_>
    <!-- stage 27 -->
    <_>
      <maxWeakCount>4</maxWeakCount>
      <stageThreshold>1.4589461684226990e-01</stageThreshold>
      <weakClassifiers>
        <_>
          <internalNodes>
            0 -1 120 319832196 67145745 537001986 -1757347839
            -1572859712 1281491081 -1576986598 445188225</internalNodes>
          <leafValues>
            -6.9565218687057495e-01 5.4143649339675903e-01</leafValues></_>
        <_>
          <internalNodes>
            0 -1 112 -1073758604 1023246270 -75 1740636124 2146877288
            2147483519 931102405 -1353597004</internalNodes>
          <leafValues>
            -5.3101086616516113e-01 7.3559612035751343e-01</leafValues></_>
        <_>
          <internalNodes>
            0 -1 117 1035623344 -1662058510 -286294029 -168018123
            532143834 -536870913 1073709054 -142819488</internalNodes>
          <leafValues>
            -5.8478200435638428e-01 6.9458216428756714e-01</leafValues></_>
        <_>
          <internalNodes>
            0 -1 129 1056757379 536805117 -1077968916 1324039167 -213089
            -1615372419 1056833276 1848704953</internalNodes>
          <leafValues>
            -5.4635596275329590e-01 7.2852790355682373e-01</leafValues></_></weakClassifiers></_>
    <!-- stage 28 -->
    <_>
      <maxWeakCount>4</maxWeakCount>
      <stageThreshold>-1.7702506482601166e-01</stageThreshold>
      <weakClassifiers>
        <_>
          <internalNodes>
            0 -1 7 -1068575616 -2075065339 1208092672 -50266084 33653189
            -1970130936 604045336 33587338</internalNodes>
          <leafValues>
            -7.5182479619979858e-01 5.5922865867614746e-01</leafValues></_>
        <_>
          <internalNodes>
            0 -1 15 -737512920 -1702858748 299009 269651976 -1987706080
            1211142144 272895299 -2138635709</internalNodes>
          <leafValues>
            -6.8841820955276489e-01 5.5552369356155396e-01</leafValues></_>
        <_>
          <internalNodes>
            0 -1 61 -1879031609 -787479416 -1879048191 545325120
            -1459580896 -1727987710 -2139051885 -1803515766</internalNodes>
          <leafValues>
            -6.7791038751602173e-01 6.2244838476181030e-01</leafValues></_>
        <_>
          <internalNodes>
            0 -1 126 1877957478 784137830 2075095022 -1225392130
            394161891 1744107447 939503032 -331907632</internalNodes>
          <leafValues>
            -6.0317236185073853e-01 7.2834366559982300e-01</leafValues></_></weakClassifiers></_>
    <!-- stage 29 -->
    <_>
      <maxWeakCount>4</maxWeakCount>
      <stageThreshold>-3.2079201191663742e-02</stageThreshold>
      <weakClassifiers>
        <_>
          <internalNodes>
            0 -1 68 -277942594 -1611728902 -1313687488 1203895802
            -1090562977 1560281087 -537107206 -75849739</internalNodes>
          <leafValues>
            -5.5102038383483887e-01 6.8421053886413574e-01</leafValues></_>
        <_>
          <internalNodes>
            0 -1 40 -1140808831 1904214277 50692161 -2147036022
            -527953653 412288000 -485425141 1913079825</internalNodes>
          <leafValues>
            -6.5273958444595337e-01 6.3612955808639526e-01</leafValues></_>
        <_>
          <internalNodes>
            0 -1 19 10771982 -805302075 -2012790780 1224884229
            1386915968 -2046222336 -2113912669 -1085912949</internalNodes>
          <leafValues>
            -6.6889780759811401e-01 6.5333122014999390e-01</leafValues></_>
        <_>
          <internalNodes>
            0 -1 73 -939392863 -1811922748 16820764 -651886336 17 0
            680543258 -872889898</internalNodes>
          <leafValues>
            -6.8352144956588745e-01 6.4130014181137085e-01</leafValues></_></weakClassifiers></_>
    <!-- stage 30 -->
    <_>
      <maxWeakCount>4</maxWeakCount>
      <stageThreshold>-2.4764762818813324e-01</stageThreshold>
      <weakClassifiers>
        <_>
          <internalNodes>
            0 -1 6 1077969280 -1743503103 1090519181 587337728
            -2139877368 -2130640768 37918755 160007120</internalNodes>
          <leafValues>
            -7.1830987930297852e-01 5.6424582004547119e-01</leafValues></_>
        <_>
          <internalNodes>
            0 -1 125 -1563405756 -2146987501 -1602221759 -2130673663
            23625954 -2080374783 1275658915 -2146939200</internalNodes>
          <leafValues>
            -7.4137806892395020e-01 5.0748658180236816e-01</leafValues></_>
        <_>
          <internalNodes>
            0 -1 95 -2012101992 8293 65541 -520093688 -2146942968
            151069057 1568801338 -511467381</internalNodes>
          <leafValues>
            -6.2537854909896851e-01 6.7389476299285889e-01</leafValues></_>
        <_>
          <internalNodes>
            0 -1 69 288943053 319160332 17105035 378470408 268599944
            -1610415998 -2145320694 1005977602</internalNodes>
          <leafValues>
            -6.9400149583816528e-01 6.1437785625457764e-01</leafValues></_></weakClassifiers></_>
    <!-- stage 31 -->
    <_>
      <maxWeakCount>4</maxWeakCount>
      <stageThreshold>-3.8355872035026550e-02</stageThreshold>
      <weakClassifiers>
        <_>
          <internalNodes>
            0 -1 101 1325366989 267124671 -16253016 -151453698
            2113896284 251658229 -50856345 -520749082</internalNodes>
          <leafValues>
            -5.2083331346511841e-01 6.4935064315795898e-01</leafValues></_>
        <_>
          <internalNodes>
            0 -1 9 1082195974 -788526964 1074004768 -1786150133
            151199773 8423425 -1735836924 1611409412</internalNodes>
          <leafValues>
            -7.2969859838485718e-01 5.4531675577163696e-01</leafValues></_>
        <_>
          <internalNodes>
            0 -1 99 -1044311581 340819975 -2130472550 870387842
            1224737835 143261954 277020673 1852899851</internalNodes>
          <leafValues>
            -6.3381791114807129e-01 6.6906726360321045e-01</leafValues></_>
        <_>
          <internalNodes>
            0 -1 108 1065140217 -1910521985 -8457 1860632567 -655489
            -32769 2147441764 -294722212</internalNodes>
          <leafValues>
            -5.9920531511306763e-01 7.3991614580154419e-01</leafValues></_></weakClassifiers></_>
    <!-- stage 32 -->
    <_>
      <maxWeakCount>4</maxWeakCount>
      <stageThreshold>-2.7465721964836121e-01</stageThreshold>
      <weakClassifiers>
        <_>
          <internalNodes>
            0 -1 11 -1047058748 1073743297 4176 -2147465032 1351659652
            -2147188576 -1994223271 318812310</internalNodes>
          <leafValues>
            -8.1666666269302368e-01 5.2105265855789185e-01</leafValues></_>
        <_>
          <internalNodes>
            0 -1 104 -1163508525 -96501849 -65981 2021261231 -1073875018
            -268435457 1056440246 -1839120525</internalNodes>
          <leafValues>
            -4.9852919578552246e-01 7.3581421375274658e-01</leafValues></_>
        <_>
          <internalNodes>
            0 -1 49 -2071985936 25690497 -2115993448 -518028264
            -1744296825 128 -2130671102 -1476263925</internalNodes>
          <leafValues>
            -7.6125419139862061e-01 5.2282863855361938e-01</leafValues></_>
        <_>
          <internalNodes>
            0 -1 26 839523266 -1718087671 406867971 687931416
            -1878785407 -259489792 1098909707 1946288139</internalNodes>
          <leafValues>
            -7.1663337945938110e-01 6.0750836133956909e-01</leafValues></_></weakClassifiers></_>
    <!-- stage 33 -->
    <_>
      <maxWeakCount>4</maxWeakCount>
      <stageThreshold>-1.3774237036705017e-01</stageThreshold>
      <weakClassifiers>
        <_>
          <internalNodes>
            0 -1 41 5186354 -738000885 335544586 353370385 117440671
            -2147483648 524360 42291360</internalNodes>
          <leafValues>
            -8.1034481525421143e-01 5.0520831346511841e-01</leafValues></_>
        <_>
          <internalNodes>
            0 -1 116 -769630223 -1308820611 -150 -855703691 -532646
            -536870921 -360481 -1635883019</internalNodes>
          <leafValues>
            -5.0334763526916504e-01 7.4547410011291504e-01</leafValues></_>
        <_>
          <internalNodes>
            0 -1 121 1653194838 1908572164 -2134898672 1901316106
            -1602207601 33753216 -1870626776 685777159</internalNodes>
          <leafValues>
            -7.0951169729232788e-01 5.5729973316192627e-01</leafValues></_>
        <_>
          <internalNodes>
            0 -1 98 -1878963824 -1048576000 -2128543536 1895891104
            172163 -1434451968 268546189 -1996292022</internalNodes>
          <leafValues>
            -6.3017135858535767e-01 7.0793139934539795e-01</leafValues></_></weakClassifiers></_>
    <!-- stage 34 -->
    <_>
      <maxWeakCount>3</maxWeakCount>
      <stageThreshold>-3.4422257542610168e-01</stageThreshold>
      <weakClassifiers>
        <_>
          <internalNodes>
            0 -1 59 -1909472093 -1207964425 805297919 717213691
            1979696383 -151561 267898719 -1023467537</internalNodes>
          <leafValues>
            -4.7906976938247681e-01 7.1228069067001343e-01</leafValues></_>
        <_>
          <internalNodes>
            0 -1 72 -67245063 -1657798679 2113796346 -1251345304
            2146885463 2139029399 1610612392 -531513994</internalNodes>
          <leafValues>
            -5.5895280838012695e-01 6.8046754598617554e-01</leafValues></_>
        <_>
          <internalNodes>
            0 -1 60 1848396991 -81166482 -21 2143813613 -16786188
            -1073807618 -1124206925 -21803786</internalNodes>
          <leafValues>
            -4.9755042791366577e-01 7.9976755380630493e-01</leafValues></_></weakClassifiers></_>
    <!-- stage 35 -->
    <_>
      <maxWeakCount>4</maxWeakCount>
      <stageThreshold>-2.1377275884151459e-01</stageThreshold>
      <weakClassifiers>
        <_>
          <internalNodes>
            0 -1 23 272843058 -1776283228 8994894 419856400 1074367506
            546570240 -2147221504 436273705</internalNodes>
          <leafValues>
            -8.4347826242446899e-01 5.1168829202651978e-01</leafValues></_>
        <_>
          <internalNodes>
            0 -1 111 515857877 754778047 -318832897 922419069 2147253518
            -1350567939 -34144420 -1166024740</internalNodes>
          <leafValues>
            -5.6750243902206421e-01 6.9255071878433228e-01</leafValues></_>
        <_>
          <internalNodes>
            0 -1 8 352350684 -1056604144 -1962665905 134676609 134512938
            -939392448 -1392443199 1751221256</internalNodes>
          <leafValues>
            -7.4246335029602051e-01 5.8559167385101318e-01</leafValues></_>
        <_>
          <internalNodes>
            0 -1 16 1344373206 210145288 16787073 661200960 -2147450870
            353009792 -2144530288 -1040115648</internalNodes>
          <leafValues>
            -6.4843690395355225e-01 6.9122862815856934e-01</leafValues></_></weakClassifiers></_>
    <!-- stage 36 -->
    <_>
      <maxWeakCount>4</maxWeakCount>
      <stageThreshold>-3.5506230592727661e-01</stageThreshold>
      <weakClassifiers>
        <_>
          <internalNodes>
            0 -1 3 1011901542 -1311244138 268566916 201326602
            -2138570493 218103824 252190758 2048938023</internalNodes>
          <leafValues>
            -7.3846155405044556e-01 5.2972972393035889e-01</leafValues></_>
        <_>
          <internalNodes>
            0 -1 58 -1945074917 -183320576 -1072693152 -603975134
            -1912569856 1073741954 -1073405951 608789128</internalNodes>
          <leafValues>
            -7.1351265907287598e-01 5.1254010200500488e-01</leafValues></_>
        <_>
          <internalNodes>
            0 -1 28 554240340 1393561600 -1056960237 1342242944
            -1593303000 -1853816824 34855 574849291</internalNodes>
          <leafValues>
            -6.6920137405395508e-01 6.2776893377304077e-01</leafValues></_>
        <_>
          <internalNodes>
            0 -1 10 1157742638 -247410167 268701956 -1606352895
            1124141185 822261888 -2147450878 1670343177</internalNodes>
          <leafValues>
            -7.2813075780868530e-01 5.3655928373336792e-01</leafValues></_></weakClassifiers></_>
    <!-- stage 37 -->
    <_>
      <maxWeakCount>4</maxWeakCount>
      <stageThreshold>-1.5809169411659241e-01</stageThreshold>
      <weakClassifiers>
        <_>
          <internalNodes>
            0 -1 27 -1105204144 -1254331720 1823135829 -520814507 -139
            2139062142 2088664575 -1640071594</internalNodes>
          <leafValues>
            -4.8768472671508789e-01 6.7003369331359863e-01</leafValues></_>
        <_>
          <internalNodes>
            0 -1 22 -753711294 336101835 268435456 336614401 -528220151
            -2008924032 1493475337 201464321</internalNodes>
          <leafValues>
            -7.9614043235778809e-01 4.9976375699043274e-01</leafValues></_>
        <_>
          <internalNodes>
            0 -1 62 -1055051524 92342480 2376 -681983935 270112770
            1879183370 201332746 1585449487</internalNodes>
          <leafValues>
            -6.3715541362762451e-01 6.3536936044692993e-01</leafValues></_>
        <_>
          <internalNodes>
            0 -1 74 -587538706 1034584060 -55640338 -269615120
            2113896284 -16908290 -4227201 -1461026828</internalNodes>
          <leafValues>
            -6.6735428571701050e-01 6.9617033004760742e-01</leafValues></_></weakClassifiers></_>
    <!-- stage 38 -->
    <_>
      <maxWeakCount>4</maxWeakCount>
      <stageThreshold>-1.1569344997406006e+00</stageThreshold>
      <weakClassifiers>
        <_>
          <internalNodes>
            0 -1 45 -1645403064 403046843 -2147448445 -1566572416
            1744839044 -1946091344 427950600 1166557746</internalNodes>
          <leafValues>
            -6.7785233259201050e-01 5.7264959812164307e-01</leafValues></_>
        <_>
          <internalNodes>
            0 -1 109 -1711834647 -289734661 -16908572 2063482750
            -1073782962 -269025292 -1216545139 -12632545</internalNodes>
          <leafValues>
            -5.0663930177688599e-01 7.4974584579467773e-01</leafValues></_>
        <_>
          <internalNodes>
            0 -1 43 -263927655 -1893138432 134291521 -1000521280
            -2130704351 402884739 1143120523 137904755</internalNodes>
          <leafValues>
            -6.5974396467208862e-01 6.1601698398590088e-01</leafValues></_>
        <_>
          <internalNodes>
            0 -1 12 1585221167 1193569902 -4296706 515866239 -883331
            2113600894 -604176693 -1082562689</internalNodes>
          <leafValues>
            -5.8845978975296021e-01 7.4292749166488647e-01</leafValues></_></weakClassifiers></_></stages>
  <features>
    <_>
      <rect>
        1 4 13 5</rect></_>
    <_>
      <rect>
        1 4 19 5</rect></_>
    <_>
      <rect>
        3 0 10 6</rect></_>
    <_>
      <rect>
        4 10 8 3</rect></_>
    <_>
      <rect>
        6 1 5 3</rect></_>
    <_>
      <rect>
        6 11 14 3</rect></_>
    <_>
      <rect>
        7 0 16 4</rect></_>
    <_>
      <rect>
        7 2 11 4</rect></_>
    <_>
      <rect>
        7 5 12 3</rect></_>
    <_>
      <rect>
        8 1 6 4</rect></_>
    <_>
      <rect>
        8 5 6 4</rect></_>
    <_>
      <rect>
        9 0 13 5</rect></_>
    <_>
      <rect>
        9 8 6 3</rect></_>
    <_>
      <rect>
        10 0 5 3</rect></_>
    <_>
      <rect>
        10 0 16 5</rect></_>
    <_>
      <rect>
        10 8 3 3</rect></_>
    <_>
      <rect>
        10 8 10 3</rect></_>
    <_>
      <rect>
        11 0 12 4</rect></_>
    <_>
      <rect>
        11 5 6 5</rect></_>
    <_>
      <rect>
        11 10 4 3</rect></_>
    <_>
      <rect>
        13 0 5 5</rect></_>
    <_>
      <rect>
        13 1 12 3</rect></_>
    <_>
      <rect>
        13 5 4 3</rect></_>
    <_>
      <rect>
        13 6 7 4</rect></_>
    <_>
      <rect>
        14 3 10 5</rect></_>
    <_>
      <rect>
        14 4 11 3</rect></_>
    <_>
      <rect>
        14 10 4 2</rect></_>
    <_>
      <rect>
        14 12 8 2</rect></_>
    <_>
      <rect>
        15 0 8 2</rect></_>
    <_>
      <rect>
        15 2 4 3</rect></_>
    <_>
      <rect>
        15 4 15 4</rect></_>
    <_>
      <rect>
        15 6 5 3</rect></_>
    <_>
      <rect>
        15 9 5 3</rect></_>
    <_>
      <rect>
        15 11 3 3</rect></_>
    <_>
      <rect>
        16 1 9 4</rect></_>
    <_>
      <rect>
        16 2 5 2</rect></_>
    <_>
      <rect>
        16 3 4 4</rect></_>
    <_>
      <rect>
        17 2 1 1</rect></_>
    <_>
      <rect>
        17 2 9 4</rect></_>
    <_>
      <rect>
        17 2 10 5</rect></_>
    <_>
      <rect>
        17 4 3 2</rect></_>
    <_>
      <rect>
        17 4 8 4</rect></_>
    <_>
      <rect>
        17 7 10 4</rect></_>
    <_>
      <rect>
        17 11 6 2</rect></_>
    <_>
      <rect>
        18 2 10 6</rect></_>
    <_>
      <rect>
        18 3 13 4</rect></_>
    <_>
      <rect>
        18 4 11 4</rect></_>
    <_>
      <rect>
        18 5 8 5</rect></_>
    <_>
      <rect>
        18 11 5 3</rect></_>
    <_>
      <rect>
        18 11 8 2</rect></_>
    <_>
      <rect>
        19 0 4 2</rect></_>
    <_>
      <rect>
        19 2 6 5</rect></_>
    <_>
      <rect>
        19 2 8 6</rect></_>
    <_>
      <rect>
        19 6 13 4</rect></_>
    <_>
      <rect>
        19 10 5 3</rect></_>
    <_>
      <rect>
        19 10 10 2</rect></_>
    <_>
      <rect>
        19 12 2 2</rect></_>
    <_>
      <rect>
        19 14 3 1</rect></_>
    <_>
      <rect>
        20 1 2 5</rect></_>
    <_>
      <rect>
        20 1 5 3</rect></_>
    <_>
      <rect>
        20 3 3 1</rect></_>
    <_>
      <rect>
        20 4 3 1</rect></_>
    <_>
      <rect>
        20 12 4 2</rect></_>
    <_>
      <rect>
        20 13 8 2</rect></_>
    <_>
      <rect>
        21 3 7 3</rect></_>
    <_>
      <rect>
        21 8 4 4</rect></_>
    <_>
      <rect>
        21 9 5 3</rect></_>
    <_>
      <rect>
        21 11 4 3</rect></_>
    <_>
      <rect>
        21 11 7 2</rect></_>
    <_>
      <rect>
        21 12 2 2</rect></_>
    <_>
      <rect>
        22 2 3 3</rect></_>
    <_>
      <rect>
        22 4 3 2</rect></_>
    <_>
      <rect>
        22 10 5 2</rect></_>
    <_>
      <rect>
        22 10 7 2</rect></_>
    <_>
      <rect>
        23 8 2 2</rect></_>
    <_>
      <rect>
        23 11 5 2</rect></_>
    <_>
      <rect>
        24 0 4 4</rect></_>
    <_>
      <rect>
        24 0 6 6</rect></_>
    <_>
      <rect>
        24 3 2 1</rect></_>
    <_>
      <rect>
        24 3 2 2</rect></_>
    <_>
      <rect>
        24 13 1 1</rect></_>
    <_>
      <rect>
        25 1 3 2</rect></_>
    <_>
      <rect>
        25 3 2 1</rect></_>
    <_>
      <rect>
        25 4 1 5</rect></_>
    <_>
      <rect>
        25 4 2 1</rect></_>
    <_>
      <rect>
        25 4 5 1</rect></_>
    <_>
      <rect>
        25 8 9 4</rect></_>
    <_>
      <rect>
        26 2 3 2</rect></_>
    <_>
      <rect>
        26 10 1 1</rect></_>
    <_>
      <rect>
        26 10 1 2</rect></_>
    <_>
      <rect>
        26 13 1 1</rect></_>
    <_>
      <rect>
        27 4 1 1</rect></_>
    <_>
      <rect>
        27 6 2 2</rect></_>
    <_>
      <rect>
        27 8 7 4</rect></_>
    <_>
      <rect>
        27 10 5 3</rect></_>
    <_>
      <rect>
        27 13 9 2</rect></_>
    <_>
      <rect>
        28 0 2 6</rect></_>
    <_>
      <rect>
        28 3 1 2</rect></_>
    <_>
      <rect>
        28 4 2 1</rect></_>
    <_>
      <rect>
        28 6 2 2</rect></_>
    <_>
      <rect>
        28 7 2 2</rect></_>
    <_>
      <rect>
        28 10 2 1</rect></_>
    <_>
      <rect>
        29 1 1 4</rect></_>
    <_>
      <rect>
        29 1 5 2</rect></_>
    <_>
      <rect>
        29 4 3 1</rect></_>
    <_>
      <rect>
        29 6 2 1</rect></_>
    <_>
      <rect>
        29 9 1 2</rect></_>
    <_>
      <rect>
        30 10 1 1</rect></_>
    <_>
      <rect>
        31 11 1 1</rect></_>
    <_>
      <rect>
        31 13 2 1</rect></_>
    <_>
      <rect>
        32 6 3 2</rect></_>
    <_>
      <rect>
        32 13 2 1</rect></_>
    <_>
      <rect>
        32 14 9 2</rect></_>
    <_>
      <rect>
        33 2 6 3</rect></_>
    <_>
      <rect>
        33 9 2 3</rect></_>
    <_>
      <rect>
        33 14 5 2</rect></_>
    <_>
      <rect>
        34 2 3 2</rect></_>
    <_>
      <rect>
        34 3 2 1</rect></_>
    <_>
      <rect>
        34 3 3 3</rect></_>
    <_>
      <rect>
        34 10 1 3</rect></_>
    <_>
      <rect>
        34 11 4 2</rect></_>
    <_>
      <rect>
        35 0 5 5</rect></_>
    <_>
      <rect>
        35 13 3 1</rect></_>
    <_>
      <rect>
        36 3 6 5</rect></_>
    <_>
      <rect>
        37 5 4 5</rect></_>
    <_>
      <rect>
        39 0 2 3</rect></_>
    <_>
      <rect>
        40 3 6 5</rect></_>
    <_>
      <rect>
        40 16 1 1</rect></_>
    <_>
      <rect>
        41 15 1 1</rect></_>
    <_>
      <rect>
        44 6 2 2</rect></_></features></cascade>
</opencv_storage>
